
\data\
ngram 1=17
ngram 2=224
ngram 3=448

\1-grams:
-1.323768	</s>
-99	<s>	0.1080735
-2.448706	<unk>
-0.7266211	dwa	0.7184623
-1.538438	iks	1.488077
-1.46343	ixs	1.420678
-0.7120443	jeden	0.7041524
-1.510854	krzyżyk	1.46343
-1.407314	kułko	1.369525
-1.556612	kółko	1.504223
-1.415283	na	1.376824
-1.466435	o	1.4234
-1.460445	pole	1.417971
-1.538438	teraz	1.488077
-0.7031111	trzy	0.695379
-1.448706	współrzędnych	1.407313
-1.440106	wstaw	1.399488

\2-grams:
-0.8532925	<s> dwa	0.1534419
-1.427324	<s> iks	-0.07759333
-1.853292	<s> ixs
-0.6969453	<s> jeden	0.1606248
-1.427324	<s> krzyżyk
-1.376171	<s> kułko	-0.03461361
-1.289021	<s> kółko	-0.1124222
-1.552263	<s> na	-0.06189338
-1.728354	<s> o	-0.1090838
-1.853292	<s> pole
-1.330414	<s> teraz	-0.03215804
-0.6314438	<s> trzy	-0.1290071
-1.376171	<s> współrzędnych	-0.05358282
-1.552263	<s> wstaw	-0.06866676
-1.338133	dwa </s>
-0.5738966	dwa dwa	-0.2299892
-2.061237	dwa iks	-0.03963382
-1.906335	dwa ixs	-0.08847684
-0.5779554	dwa jeden	-0.3635601
-1.906335	dwa krzyżyk	-0.05498643
-1.730244	dwa kułko	-0.02396203
-1.864942	dwa kółko	-0.01736416
-1.792392	dwa na	-0.08567549
-1.906335	dwa o	-0.07372218
-1.952093	dwa pole	-0.01484912
-2.061237	dwa teraz	-0.03620064
-0.5738966	dwa trzy	-0.5040844
-1.730244	dwa współrzędnych	-0.09036852
-2.304275	dwa wstaw
-1.534661	iks </s>
-1.136721	iks dwa	-0.008360629
-1.291623	iks iks	-0.04977345
-1.437751	iks ixs	-0.07821076
-1.233631	iks jeden	-0.05795685
-1.233631	iks krzyżyk	-0.03431882
-1.182478	iks kułko	-0.0997957
-1.358569	iks kółko
-1.291623	iks na	-0.08379134
-1.095328	iks o	-0.067949
-1.095328	iks pole	-0.03309893
-1.437751	iks teraz	-0.07622763
-1.136721	iks trzy	-0.0297526
-1.182478	iks współrzędnych	-0.0566739
-1.057539	iks wstaw	-0.00171998
-1.359022	ixs </s>
-1.50515	ixs dwa
-1.249877	ixs iks	-0.06010018
-1.028029	ixs ixs	0.03288121
-1.057992	ixs jeden	0.008204115
-1.90309	ixs krzyżyk	-0.4396049
-1.162727	ixs kułko	-0.01090966
-2.20412	ixs kółko
-0.9488475	ixs na	-0.06841647
-1.028029	ixs o	-0.1758429
-1.20412	ixs pole	-0.04533338
-1.425969	ixs teraz
-1.090177	ixs trzy	0.1948858
-1.20412	ixs współrzędnych	-0.08300284
-1.249877	ixs wstaw	-0.05799194
-1.364342	jeden </s>
-0.5723401	jeden dwa	-0.461207
-2.142494	jeden iks	-0.06101931
-1.920645	jeden ixs	-0.02316164
-0.5922654	jeden jeden	-0.2077543
-1.920645	jeden krzyżyk	-0.05498644
-1.806702	jeden kułko	-0.06639495
-1.966403	jeden kółko	-0.09691
-1.716525	jeden na	-0.0008170982
-1.879252	jeden o	-0.0568348
-2.017555	jeden pole
-1.841464	jeden teraz	-0.07567193
-0.557033	jeden trzy	-0.367246
-1.920645	jeden współrzędnych	-0.05601338
-1.920645	jeden wstaw	-0.1020496
-1.462398	krzyżyk </s>
-1.082187	krzyżyk dwa	0.05876238
-1.31627	krzyżyk iks
-1.207126	krzyżyk ixs	-0.04467039
-1.860338	krzyżyk jeden
-1.119975	krzyżyk krzyżyk	-0.1903854
-1.207126	krzyżyk kułko	-0.05718694
-1.383217	krzyżyk kółko	-0.0421232
-1.462398	krzyżyk na
-1.207126	krzyżyk o	-0.05904122
-1.161368	krzyżyk pole	-0.08603408
-1.31627	krzyżyk teraz	-0.09202188
-1.119975	krzyżyk trzy	0.08592387
-1.119975	krzyżyk współrzędnych	-0.04224642
-0.957248	krzyżyk wstaw	-0.1742071
-1.255273	kułko </s>
-0.9542425	kułko dwa	-0.2156987
-1.410174	kułko iks	-0.04304007
-1.176091	kułko ixs	-0.0794325
-1.21388	kułko jeden	-0.2559285
-1.410174	kułko krzyżyk	-0.03828746
-1.141329	kułko kułko	-0.03870354
-1.352183	kułko kółko	-0.01712093
-1.30103	kułko na	-0.06231145
-1.079181	kułko o	-0.1065266
-1.079181	kułko pole	-0.1588323
-1.352183	kułko teraz	-0.03601705
-1.477121	kułko trzy	-0.08304334
-1.352183	kułko współrzędnych	-0.07786322
-1.051152	kułko wstaw	-0.0509993
-1.643453	kółko </s>
-1.421604	kółko dwa	-0.1053562
-1.421604	kółko iks
-1.166331	kółko ixs	-0.1040886
-1.518514	kółko jeden
-1.006631	kółko krzyżyk	-0.06186828
-1.217484	kółko kułko	-0.02435934
-1.120574	kółko kółko	-0.0281013
-1.120574	kółko na	-0.1670001
-1.421604	kółko o	-0.2234845
-1.342423	kółko pole	-0.04764163
-1.342423	kółko teraz	-0.07100353
-1.041393	kółko trzy	0.0008182685
-1.006631	kółko współrzędnych	-0.0694214
-1.217484	kółko wstaw	-0.07255068
-1.206581	na </s>
-1.247973	na dwa	0.03077773
-1.293731	na iks	-0.06739941
-1.071882	na ixs	-0.071882
-1.206581	na jeden	-0.01354257
-1.168792	na krzyżyk	-0.1385749
-1.206581	na kułko	-0.003005507
-1.293731	na kółko	-0.1847775
-1.043853	na na	-0.03287058
-1.13403	na o	-0.05935552
-1.247973	na pole	-0.03265236
-1.247973	na teraz	-0.05160514
-1.344883	na trzy	0.0847984
-1.293731	na współrzędnych	-0.05046959
-1.344883	na wstaw	-0.06694679
-1.356299	o </s>
-1.160004	o dwa	-0.1421366
-1.599337	o iks	-0.1166174
-1.087454	o ixs	-0.0377584
-1.201397	o jeden	-0.029118
-1.201397	o krzyżyk	-0.06572728
-1.087454	o kułko	-0.09835523
-1.356299	o kółko	-0.04188185
-1.356299	o na	-0.05246411
-1.247155	o o	-0.01731339
-1.160004	o pole	-0.03694147
-1.160004	o teraz	-0.0357364
-1.247155	o trzy
-1.356299	o współrzędnych	-0.1047353
-1.025306	o wstaw	-0.09938464
-1.303736	pole </s>
-1.303736	pole dwa	-0.00322099
-1.127645	pole iks	-0.09175876
-1.060698	pole ixs	-0.03489062
-1.252583	pole jeden	-0.1660707
-1.127645	pole krzyżyk	-0.01006588
-1.060698	pole kułko	-0.02802873
-1.303736	pole kółko	-0.1816951
-1.252583	pole na	-0.03169368
-1.303736	pole o	-0.1267275
-1.206826	pole pole	-0.03265236
-1.507856	pole teraz	-0.07279445
-1.303736	pole trzy	-0.00699429
-1.361728	pole współrzędnych	-0.03404367
-1.060698	pole wstaw	-0.1141422
-1.233631	teraz </s>
-1.358569	teraz dwa	-0.0817282
-1.437751	teraz iks	-0.07279445
-1.437751	teraz ixs
-1.057539	teraz jeden	0.2086692
-1.835691	teraz krzyżyk
-1.182478	teraz kułko	-0.07043257
-1.291623	teraz kółko
-1.095328	teraz na	-0.04206135
-1.233631	teraz o	-0.04259437
-1.233631	teraz pole	-0.1343613
-1.182478	teraz teraz	-0.01454711
-1.136721	teraz trzy	-0.04057223
-1.057539	teraz współrzędnych	-0.08354605
-1.136721	teraz wstaw	-0.04520318
-1.29595	trzy </s>
-0.5889748	trzy dwa	-0.08469427
-1.783291	trzy iks	-0.007771707
-1.815476	trzy ixs	-0.06861396
-0.5420291	trzy jeden	-0.4278544
-1.975176	trzy krzyżyk	-0.06394127
-2.230449	trzy kułko	-0.07918125
-2.026329	trzy kółko	-0.1394974
-2.026329	trzy na	-0.0662771
-2.026329	trzy o	-0.08145148
-1.975176	trzy pole	-0.01484912
-1.888026	trzy teraz	-0.07145196
-0.5850267	trzy trzy	-0.3050984
-1.753328	trzy współrzędnych	-0.04598305
-2.026329	trzy wstaw	-0.05168247
-1.372386	współrzędnych </s>
-1.372386	współrzędnych dwa	-0.0671287
-1.263241	współrzędnych iks	-0.05640402
-1.314394	współrzędnych ixs	-0.03700487
-1.071356	współrzędnych jeden	-0.006544162
-1.263241	współrzędnych krzyżyk	-0.03545274
-0.9622114	współrzędnych kułko	0.03445148
-1.518514	współrzędnych kółko
-1.138303	współrzędnych na	-0.01164337
-1.372386	współrzędnych o	-0.0472448
-1.138303	współrzędnych pole	-0.09056982
-1.518514	współrzędnych teraz	-0.1643094
-0.9387304	współrzędnych trzy	-0.1753832
-1.439333	współrzędnych współrzędnych	-0.06832331
-1.138303	współrzędnych wstaw	-0.08795517
-1.079181	wstaw </s>
-1.225309	wstaw dwa	-0.04014612
-1.111366	wstaw iks	-0.07944532
-1.623249	wstaw ixs
-1.225309	wstaw jeden	0.1645624
-1.380211	wstaw krzyżyk	-0.125313
-1.322219	wstaw kułko	-0.05817288
-1.183917	wstaw kółko	-0.1078264
-1.049218	wstaw na	-0.04494704
-1.183917	wstaw o	-0.1230724
-1.079181	wstaw pole	0.00394144
-1.225309	wstaw teraz	-0.07352497
-1.146128	wstaw trzy	-0.1315809
-1.271067	wstaw współrzędnych
-1.526339	wstaw wstaw	-0.07135591

\3-grams:
-0.526809	<s> dwa dwa
-1.267172	<s> dwa ixs
-0.5682017	<s> dwa jeden
-0.9661418	<s> dwa trzy
-1.273001	dwa dwa </s>
-0.5597908	dwa dwa dwa
-0.5813305	dwa dwa jeden
-2.051152	dwa dwa kułko
-2.051152	dwa dwa na
-2.051152	dwa dwa o
-0.49485	dwa dwa trzy
-2.051152	dwa dwa współrzędnych
-0.9294189	iks dwa dwa
-0.7533277	iks dwa kółko
-1.460522	jeden dwa </s>
-0.544068	jeden dwa dwa
-0.5002891	jeden dwa jeden
-2.062582	jeden dwa kułko
-0.5123537	jeden dwa trzy
-1.041393	krzyżyk dwa dwa
-1.041393	krzyżyk dwa współrzędnych
-1.20412	kułko dwa iks
-0.90309	kułko dwa kułko
-1.20412	kułko dwa na
-1.20412	kułko dwa o
-1.20412	kułko dwa pole
-1.20412	kułko dwa teraz
-0.6532125	kółko dwa iks
-0.9542425	na dwa dwa
-0.9542425	na dwa iks
-0.9777236	o dwa kułko
-0.9777236	o dwa kółko
-0.9777236	o dwa współrzędnych
-0.845098	pole dwa jeden
-0.845098	pole dwa na
-0.7403627	teraz dwa krzyżyk
-1.251545	trzy dwa </s>
-0.559308	trzy dwa dwa
-2.064458	trzy dwa ixs
-0.545944	trzy dwa jeden
-2.064458	trzy dwa krzyżyk
-1.888367	trzy dwa kułko
-0.5730963	trzy dwa trzy
-2.064458	trzy dwa współrzędnych
-0.8129134	współrzędnych dwa ixs
-0.9777236	wstaw dwa współrzędnych
-0.845098	<s> iks pole
-0.845098	<s> iks współrzędnych
-0.8129134	dwa iks trzy
-0.8129134	iks iks na
-0.90309	ixs iks iks
-0.90309	ixs iks wstaw
-0.7403627	jeden iks jeden
-0.8129134	kułko iks kułko
-0.90309	na iks krzyżyk
-0.90309	na iks współrzędnych
-0.544068	o iks kułko
-1	pole iks </s>
-0.8239087	pole iks pole
-1	pole iks wstaw
-0.6532125	teraz iks o
-1.09691	trzy iks jeden
-1.09691	trzy iks pole
-1.09691	trzy iks wstaw
-0.90309	współrzędnych iks kułko
-0.90309	współrzędnych iks o
-1.021189	wstaw iks dwa
-1.021189	wstaw iks o
-1.021189	wstaw iks trzy
-0.845098	wstaw iks wstaw
-0.6283889	dwa ixs współrzędnych
-0.6532125	iks ixs kułko
-1.09691	ixs ixs jeden
-1.09691	ixs ixs kułko
-1.09691	ixs ixs na
-1.09691	ixs ixs o
-1.09691	ixs ixs trzy
-0.9777236	jeden ixs wstaw
-0.90309	krzyżyk ixs iks
-0.90309	krzyżyk ixs na
-0.9777236	kułko ixs ixs
-0.9777236	kułko ixs jeden
-0.9777236	kułko ixs na
-0.9777236	kułko ixs trzy
-0.9777236	kułko ixs wstaw
-0.8750613	kółko ixs ixs
-0.8750613	kółko ixs jeden
-0.8750613	kółko ixs wstaw
-0.90309	na ixs kułko
-0.90309	na ixs na
-0.90309	na ixs trzy
-0.8653014	o ixs na
-1.041393	o ixs pole
-1.041393	o ixs trzy
-1.060698	pole ixs dwa
-1.060698	pole ixs jeden
-1.060698	pole ixs na
-1.060698	pole ixs o
-1.060698	pole ixs współrzędnych
-0.845098	trzy ixs ixs
-1.021189	trzy ixs jeden
-0.845098	trzy ixs o
-0.8750613	współrzędnych ixs iks
-0.6746107	<s> jeden dwa
-0.6368221	<s> jeden jeden
-0.5698753	<s> jeden trzy
-1.30496	dwa jeden </s>
-0.5334396	dwa jeden dwa
-0.6139592	dwa jeden jeden
-1.869232	dwa jeden na
-0.4712917	dwa jeden trzy
-2.045323	dwa jeden współrzędnych
-0.8750613	iks jeden pole
-1.079181	ixs jeden krzyżyk
-1.079181	ixs jeden kułko
-0.90309	ixs jeden trzy
-1.447158	jeden jeden </s>
-0.5509075	jeden jeden dwa
-0.4929155	jeden jeden jeden
-1.873127	jeden jeden kułko
-2.049218	jeden jeden na
-2.049218	jeden jeden o
-0.579396	jeden jeden trzy
-0.9294189	kułko jeden ixs
-0.6283889	kułko jeden na
-0.9294189	kułko jeden teraz
-0.9777236	na jeden dwa
-0.9777236	na jeden kułko
-0.9777236	na jeden kółko
-0.9777236	o jeden </s>
-0.69897	pole jeden iks
-0.8750613	pole jeden kułko
-1.021189	teraz jeden dwa
-1.021189	teraz jeden o
-1.021189	teraz jeden trzy
-1.289177	trzy jeden </s>
-0.5166298	trzy jeden dwa
-0.5642715	trzy jeden jeden
-2.102091	trzy jeden o
-1.801061	trzy jeden teraz
-0.5280592	trzy jeden trzy
-2.102091	trzy jeden wstaw
-1.079181	współrzędnych jeden jeden
-1.079181	współrzędnych jeden krzyżyk
-0.90309	współrzędnych jeden o
-0.9294189	wstaw jeden dwa
-0.9294189	wstaw jeden trzy
-0.9294189	wstaw jeden współrzędnych
-0.9542425	dwa krzyżyk krzyżyk
-0.9542425	dwa krzyżyk kółko
-0.8750613	iks krzyżyk kułko
-0.1760913	ixs krzyżyk dwa
-0.9542425	jeden krzyżyk pole
-0.9542425	jeden krzyżyk teraz
-0.9294189	krzyżyk krzyżyk iks
-0.7533277	krzyżyk krzyżyk o
-0.7533277	krzyżyk krzyżyk pole
-0.8129134	kułko krzyżyk krzyżyk
-1.041393	kółko krzyżyk kółko
-1.041393	kółko krzyżyk o
-0.8653014	kółko krzyżyk wstaw
-0.9777236	na krzyżyk krzyżyk
-0.9777236	na krzyżyk kułko
-0.8016323	na krzyżyk o
-0.9777236	na krzyżyk trzy
-0.6283889	o krzyżyk wstaw
-1.021189	pole krzyżyk dwa
-1.021189	pole krzyżyk krzyżyk
-1.021189	pole krzyżyk wstaw
-0.90309	trzy krzyżyk dwa
-0.90309	trzy krzyżyk iks
-0.90309	współrzędnych krzyżyk współrzędnych
-0.90309	współrzędnych krzyżyk wstaw
-0.7781513	wstaw krzyżyk na
-0.7781513	wstaw krzyżyk współrzędnych
-0.9294189	<s> kułko teraz
-1.113943	dwa kułko </s>
-0.9378521	dwa kułko o
-1.113943	dwa kułko wstaw
-0.69897	iks kułko dwa
-0.8750613	iks kułko na
-1.021189	ixs kułko kułko
-1.041393	jeden kułko dwa
-0.8653014	jeden kułko kółko
-1.041393	jeden kułko na
-0.90309	krzyżyk kułko </s>
-0.90309	krzyżyk kułko wstaw
-0.8846066	kułko kułko jeden
-1.060698	kułko kułko o
-0.8750613	kółko kułko pole
-1	na kułko dwa
-1	na kułko pole
-1.021189	o kułko iks
-1.021189	o kułko kułko
-1.021189	o kułko pole
-0.845098	o kułko wstaw
-0.90309	pole kułko dwa
-1.079181	pole kułko kółko
-1.079181	pole kułko wstaw
-0.7269987	teraz kułko współrzędnych
-0.6532125	trzy kułko ixs
-1.01424	współrzędnych kułko dwa
-1.190332	współrzędnych kułko ixs
-1.190332	współrzędnych kułko o
-1.190332	współrzędnych kułko pole
-0.845098	wstaw kułko dwa
-0.845098	wstaw kułko kułko
-0.9542425	<s> kółko iks
-0.6532125	<s> kółko krzyżyk
-0.9777236	dwa kółko krzyżyk
-0.9777236	dwa kółko trzy
-0.9777236	dwa kółko współrzędnych
-0.8750613	jeden kółko na
-0.69897	jeden kółko trzy
-0.7403627	krzyżyk kółko krzyżyk
-0.8750613	kułko kółko współrzędnych
-0.9777236	kółko kółko teraz
-0.845098	na kółko pole
-0.845098	na kółko trzy
-0.6690068	na kółko współrzędnych
-0.8129134	o kółko ixs
-0.8129134	pole kółko kółko
-0.8129134	pole kółko teraz
-0.8129134	pole kółko wstaw
-0.6368221	trzy kółko kółko
-0.8129134	trzy kółko na
-0.9542425	wstaw kółko krzyżyk
-0.9542425	wstaw kółko kułko
-0.9542425	wstaw kółko o
-0.9542425	wstaw kółko trzy
-0.7403627	<s> na dwa
-1.041393	dwa na jeden
-1.041393	dwa na kółko
-0.8653014	dwa na teraz
-0.60206	iks na na
-1.146128	ixs na </s>
-1.146128	ixs na ixs
-0.9700368	ixs na jeden
-0.9700368	ixs na na
-0.9700368	ixs na o
-1.146128	jeden na ixs
-0.9700368	jeden na na
-1.146128	jeden na o
-0.7269987	kułko na kułko
-0.90309	kółko na dwa
-0.90309	kółko na ixs
-0.90309	kółko na krzyżyk
-0.90309	kółko na pole
-1.161368	na na kułko
-0.9852768	na na trzy
-0.8129134	o na wstaw
-0.9294189	pole na współrzędnych
-1	teraz na </s>
-1	teraz na teraz
-0.6690068	trzy na ixs
-1.060698	współrzędnych na </s>
-1.113943	wstaw na dwa
-0.8129134	wstaw na na
-0.544068	<s> o kułko
-0.7533277	dwa o ixs
-0.9294189	dwa o kułko
-0.9777236	iks o kółko
-0.8016323	iks o wstaw
-1.060698	ixs o dwa
-1.060698	ixs o iks
-0.8846066	ixs o jeden
-0.8846066	ixs o kułko
-1.060698	ixs o współrzędnych
-0.9777236	jeden o ixs
-0.9777236	jeden o kułko
-0.9777236	jeden o o
-0.7269987	krzyżyk o teraz
-1.079181	kułko o dwa
-0.90309	kułko o krzyżyk
-0.7781513	kułko o pole
-0.60206	kółko o dwa
-0.60206	kółko o wstaw
-1.041393	na o dwa
-1.041393	na o krzyżyk
-1.041393	na o kółko
-1.041393	na o wstaw
-0.9294189	o o ixs
-0.6368221	pole o ixs
-0.8129134	pole o wstaw
-0.8750613	teraz o </s>
-0.845098	trzy o ixs
-0.845098	trzy o trzy
-0.8129134	współrzędnych o o
-0.9542425	wstaw o jeden
-0.9542425	wstaw o o
-0.7781513	wstaw o pole
-0.9294189	dwa pole wstaw
-1	iks pole dwa
-1	iks pole ixs
-0.9542425	ixs pole </s>
-0.9542425	ixs pole ixs
-0.9294189	krzyżyk pole krzyżyk
-0.9294189	krzyżyk pole o
-0.9294189	krzyżyk pole wstaw
-1.060698	kułko pole jeden
-0.7596679	kułko pole kułko
-1.060698	kułko pole na
-1.060698	kułko pole pole
-1.060698	kułko pole trzy
-0.7403627	kółko pole wstaw
-0.9542425	na pole ixs
-0.9542425	na pole krzyżyk
-0.8239087	o pole krzyżyk
-0.9542425	pole pole krzyżyk
-0.9542425	pole pole wstaw
-0.8129134	teraz pole iks
-0.6368221	teraz pole kułko
-0.9294189	trzy pole ixs
-1	współrzędnych pole </s>
-1	współrzędnych pole iks
-1	współrzędnych pole kółko
-1	współrzędnych pole wstaw
-1.113943	wstaw pole iks
-1.113943	wstaw pole kułko
-0.9777236	<s> teraz iks
-0.8129134	dwa teraz na
-0.6532125	iks teraz wstaw
-0.8239087	jeden teraz na
-1	jeden teraz trzy
-1	jeden teraz wstaw
-0.60206	krzyżyk teraz wstaw
-0.8750613	kułko teraz pole
-0.7403627	kółko teraz ixs
-0.9542425	na teraz pole
-0.9542425	na teraz teraz
-1	o teraz </s>
-1	o teraz trzy
-0.6532125	pole teraz na
-0.9294189	teraz teraz współrzędnych
-0.8016323	trzy teraz kułko
-0.9777236	trzy teraz teraz
-0.4259687	współrzędnych teraz jeden
-0.9294189	wstaw teraz jeden
-0.9294189	wstaw teraz pole
-0.9294189	wstaw teraz współrzędnych
-0.6342447	<s> trzy dwa
-0.4694344	<s> trzy jeden
-1.447158	<s> trzy kółko
-0.6690068	<s> trzy trzy
-1.271067	<s> trzy współrzędnych
-1.09108	dwa trzy </s>
-0.5682017	dwa trzy dwa
-1.869232	dwa trzy ixs
-0.575501	dwa trzy jeden
-0.4830301	dwa trzy trzy
-0.9294189	iks trzy jeden
-0.9294189	iks trzy na
-0.9294189	iks trzy pole
-1.041393	ixs trzy jeden
-0.8653014	ixs trzy trzy
-1.041393	ixs trzy współrzędnych
-1.425969	jeden trzy </s>
-0.60206	jeden trzy dwa
-0.4357286	jeden trzy jeden
-2.079181	jeden trzy pole
-0.5541365	jeden trzy trzy
-2.079181	jeden trzy współrzędnych
-1.021189	krzyżyk trzy dwa
-0.7403627	kułko trzy wstaw
-1.021189	kółko trzy o
-1.021189	kółko trzy trzy
-1.021189	kółko trzy współrzędnych
-0.8750613	na trzy jeden
-0.845098	pole trzy dwa
-0.845098	pole trzy iks
-0.9777236	teraz trzy współrzędnych
-1.322219	trzy trzy </s>
-0.5002891	trzy trzy dwa
-0.5311031	trzy trzy jeden
-2.062582	trzy trzy o
-2.062582	trzy trzy teraz
-0.5782821	trzy trzy trzy
-0.748188	współrzędnych trzy dwa
-1.146128	współrzędnych trzy iks
-0.9700368	współrzędnych trzy ixs
-1.146128	współrzędnych trzy kułko
-0.9700368	współrzędnych trzy o
-1.021189	wstaw trzy kółko
-1.021189	wstaw trzy pole
-1.021189	wstaw trzy teraz
-0.90309	<s> współrzędnych dwa
-0.90309	<s> współrzędnych kułko
-1.060698	dwa współrzędnych ixs
-0.8846066	dwa współrzędnych jeden
-1.060698	dwa współrzędnych kułko
-0.7596679	dwa współrzędnych trzy
-0.90309	iks współrzędnych na
-0.90309	iks współrzędnych wstaw
-0.7533277	ixs współrzędnych na
-0.9294189	ixs współrzędnych wstaw
-0.9542425	jeden współrzędnych jeden
-0.9542425	jeden współrzędnych teraz
-0.9777236	krzyżyk współrzędnych pole
-0.8016323	krzyżyk współrzędnych trzy
-0.845098	kułko współrzędnych kułko
-0.845098	kułko współrzędnych współrzędnych
-0.8653014	kółko współrzędnych krzyżyk
-1.041393	kółko współrzędnych pole
-1.041393	kółko współrzędnych wstaw
-0.90309	na współrzędnych ixs
-0.90309	na współrzędnych kułko
-0.7781513	o współrzędnych </s>
-0.7781513	o współrzędnych kułko
-0.8129134	pole współrzędnych jeden
-1	teraz współrzędnych kułko
-1	teraz współrzędnych kółko
-0.8239087	teraz współrzędnych pole
-1.079181	trzy współrzędnych iks
-1.079181	trzy współrzędnych kułko
-1.079181	trzy współrzędnych pole
-0.7781513	trzy współrzędnych trzy
-0.7403627	współrzędnych współrzędnych dwa
-0.7403627	<s> wstaw krzyżyk
-1.060698	iks wstaw </s>
-0.90309	ixs wstaw </s>
-0.90309	ixs wstaw dwa
-0.9294189	jeden wstaw krzyżyk
-0.7533277	jeden wstaw kółko
-0.7781513	krzyżyk wstaw </s>
-0.90309	krzyżyk wstaw iks
-1.079181	krzyżyk wstaw o
-1.079181	krzyżyk wstaw teraz
-1.079181	krzyżyk wstaw wstaw
-1.113943	kułko wstaw iks
-0.9378521	kułko wstaw kółko
-1.113943	kułko wstaw o
-1.113943	kułko wstaw pole
-1.113943	kułko wstaw teraz
-0.6690068	kółko wstaw trzy
-0.6690068	na wstaw </s>
-0.7781513	o wstaw na
-0.90309	o wstaw trzy
-1.079181	o wstaw współrzędnych
-1.060698	pole wstaw ixs
-0.8846066	pole wstaw jeden
-1.060698	pole wstaw kółko
-1.060698	pole wstaw teraz
-0.9542425	teraz wstaw iks
-0.9542425	teraz wstaw jeden
-0.8750613	trzy wstaw ixs
-0.8239087	współrzędnych wstaw na
-0.8239087	współrzędnych wstaw współrzędnych
-0.6532125	wstaw wstaw pole

\end\
